Language model created by QuickLM on Thu Mar  5 21:43:06 EST 2015
Copyright (c) 1996-2010 Carnegie Mellon University and Alexander I. Rudnicky

The model is in standard ARPA format, designed by Doug Paul while he was at MITRE.

The code that was used to produce this language model is available in Open Source.
Please visit http://www.speech.cs.cmu.edu/tools/ for more information

The (fixed) discount mass is 0.5. The backoffs are computed using the ratio method.
This model based on a corpus of 5 sentences and 395 words

\data\
ngram 1=395
ngram 2=828
ngram 3=924

\1-grams:
-2.6888 </s> -0.3010
-2.6888 <s> -0.2910
-1.9564 A -0.2953
-3.3877 ABOUT -0.3000
-3.3877 ACCEPT -0.2973
-3.3877 ADMIT -0.3000
-3.3877 AGAIN -0.2962
-3.3877 AGIN -0.3007
-3.3877 AH -0.2957
-1.8964 AINT -0.2849
-2.6888 ALL -0.2900
-3.3877 ALLOWED -0.2978
-3.3877 ALONE -0.2946
-3.3877 ALWAYS -0.3009
-3.0867 AM -0.2984
-2.6888 AN -0.2937
-1.9564 AND -0.2676
-2.6096 ANSWER -0.2964
-3.3877 ANY -0.2978
-3.0867 ANYWAY -0.2971
-2.4847 ARE -0.2949
-3.0867 AROUND -0.2935
-3.3877 AS -0.2910
-3.3877 ASKS -0.2946
-3.0867 AT -0.2878
-2.1836 BABE -0.2708
-3.3877 BABEV -0.2973
-3.3877 BABY -0.3009
-3.3877 BACK -0.3009
-3.3877 BALLS -0.3009
-3.3877 BANNED -0.2910
-3.3877 BATTLE -0.3009
-2.3877 BE -0.2960
-3.3877 BEDROOM -0.3005
-2.4847 BEFORE -0.2851
-3.3877 BEHIND -0.3003
-3.3877 BEST -0.2978
-3.0867 BETTER -0.2984
-3.3877 BEYOND -0.2980
-3.3877 BLOCK -0.3003
-2.6096 BLOWIN -0.2982
-3.3877 BONE -0.3005
-3.3877 BORED -0.2957
-3.3877 BOUND -0.2957
-3.3877 BRAINS -0.3009
-3.3877 BREAK -0.3000
-3.3877 BRICKS -0.2910
-2.9106 BROTHER -0.2917
-2.2416 BUT -0.2884
-3.3877 BY -0.3001
-2.9106 CALL -0.2942
-3.0867 CALLING -0.3000
-2.6888 CAN -0.2953
-3.3877 CANNON -0.3009
-2.7857 CANT -0.3001
-3.3877 CAST -0.2910
-3.3877 CHANCE -0.3009
-3.3877 CHANGE -0.2989
-2.6888 CHANGIN -0.2889
-3.3877 CHILD -0.2957
-3.3877 CHOSEN -0.3009
-3.3877 CIGAR -0.3000
-3.0867 CLOSE -0.3000
-2.6096 COME -0.2994
-3.3877 COMMAND -0.2980
-3.3877 CONGRESSMEN -0.3007
-3.3877 CONSTANTLY -0.3001
-3.3877 COULD -0.3003
-3.3877 CRITICIZE -0.3009
-3.3877 CRITICS -0.3001
-3.3877 CROWS -0.3007
-3.3877 CRY -0.2998
-3.3877 CURSE -0.2973
-3.3877 DARK -0.3009
-3.3877 DAUGHTERS -0.2996
-3.3877 DAWN -0.3007
-3.3877 DEATHS -0.2994
-3.3877 DEFEND -0.2946
-3.3877 DID -0.3003
-3.3877 DIE -0.2960
-3.3877 DIED -0.2910
-3.3877 DIME -0.2991
-3.0867 DO -0.3003
-3.3877 DOESNT -0.3007
-3.0867 DONE -0.2992
-2.3877 DONT -0.2991
-2.9106 DOOR -0.2930
-3.3877 DOORWAY -0.2992
-3.3877 DOVE -0.3009
-2.9106 DOWN -0.2829
-3.3877 DRAWN -0.2910
-3.3877 DRENCHED -0.2978
-3.3877 DRIVIN -0.2987
-2.9106 EACH -0.2951
-3.3877 EARS -0.3001
-3.3877 EIGHT -0.2985
-3.3877 EVEN -0.2946
-3.0867 EVERY -0.2994
-3.0867 EVERYBODY -0.3005
-3.3877 EVERYTHING -0.3009
-3.0867 EXIST -0.2996
-3.0867 EYES -0.2958
-3.3877 FACE -0.2998
-3.3877 FADIN -0.2962
-3.3877 FALL -0.2978
-3.3877 FARE -0.3009
-2.6096 FARM -0.2949
-3.3877 FAST -0.3009
-3.3877 FATHERS -0.3009
-3.3877 FINES -0.2946
-3.3877 FIRST -0.2998
-3.3877 FLOOR -0.2957
-3.3877 FLOWERS -0.3009
-3.3877 FLY -0.2996
-3.3877 FOLD -0.2989
-1.9406 FOR -0.2748
-3.3877 FOREVER -0.3009
-3.3877 FOUR -0.2957
-3.3877 FREE -0.2998
-2.9106 FRIEND -0.2985
-3.0867 FROM -0.2888
-3.3877 FULL -0.3000
-3.0867 GAL -0.2949
-3.0867 GATHER -0.3007
-3.3877 GAVE -0.3009
-3.0867 GET -0.2998
-3.3877 GETS -0.3009
-2.7857 GO -0.3001
-3.3877 GOD -0.2962
-3.3877 GONE -0.2996
-2.2117 GONNA -0.2984
-3.0867 GOOD -0.2951
-3.3877 GOODBYES -0.3003
-3.3877 GOT -0.2962
-3.3877 GRIN -0.3005
-3.3877 GROUND -0.2996
-3.3877 GROWN -0.2962
-3.3877 GUARD -0.3009
-3.3877 HALL -0.2960
-3.3877 HAND -0.2960
-2.9106 HANDS -0.2897
-3.3877 HAS -0.3009
-2.7857 HAVE -0.2989
-3.3877 HAVIN -0.2962
-2.3464 HE -0.2957
-3.0867 HEAD -0.3007
-3.0867 HEAR -0.2939
-3.0867 HEART -0.2973
-3.3877 HEED -0.2910
-3.3877 HER -0.2989
-3.3877 HERE -0.3009
-3.3877 HIM -0.2962
-2.6096 HIS -0.2991
-3.3877 HONEY -0.3009
-2.4335 HOW -0.2992
-3.3877 HURT -0.2994
-1.9106 I -0.2873
-3.3877 IDEAS -0.3000
-2.9106 IF -0.2900
-3.0867 ILL -0.2980
-2.4847 IM -0.2933
-2.1836 IN -0.2867
-3.3877 INSANE -0.2998
-3.3877 INSIDE -0.2985
-3.3877 INTO -0.2910
-2.2416 IS -0.2985
-2.0655 IT -0.2917
-3.0867 ITLL -0.2994
-2.5426 ITS -0.2949
-2.5426 JUST -0.2935
-3.3877 KEEP -0.2980
-3.3877 KICKS -0.3000
-3.3877 KINDA -0.3009
-3.3877 KNOW -0.3009
-3.3877 KNOWED -0.2962
-3.3877 KNOWS -0.3000
-3.3877 LAND -0.2962
-3.3877 LAST -0.2960
-2.7857 LATER -0.2960
-3.3877 LAW -0.3007
-3.3877 LEAVE -0.3007
-3.3877 LEDGE -0.2982
-3.3877 LEND -0.2980
-3.3877 LET -0.2980
-3.3877 LIFE -0.3001
-2.9106 LIGHT -0.2928
-3.0867 LIGHTLY -0.2987
-2.7857 LIKE -0.2840
-3.3877 LINE -0.2973
-3.3877 LONG -0.3009
-3.0867 LOOK -0.2992
-2.6888 LOOKIN -0.2960
-3.3877 LOOKING -0.2960
-3.3877 LOSER -0.3001
-3.3877 LOVED -0.2962
-3.3877 LOVER -0.2960
-2.9106 MA -0.2949
-3.0867 MADE -0.2989
-2.2117 MAGGIES -0.2982
-3.3877 MAKE -0.2987
-3.3877 MAKES -0.2987
-2.6096 MAN -0.2931
-2.3877 MANY -0.2978
-2.2738 ME -0.2958
-3.3877 MELT -0.3009
-3.0867 MIND -0.2897
-2.1325 MORE -0.2832
-3.3877 MORNING -0.3009
-3.3877 MOTHERS -0.2962
-3.3877 MOUNTAIN -0.3007
-3.3877 MOVING -0.3001
-3.3877 MUCH -0.3009
-2.6888 MUST -0.2847
-2.3086 MY -0.2978
-3.0867 NAME -0.3007
-3.3877 NAMIN -0.2960
-3.3877 NATIONAL -0.3009
-3.3877 NEED -0.2946
-2.6096 NEVER -0.2966
-3.3877 NEW -0.2998
-3.3877 NICKEL -0.2991
-3.3877 NIGHT -0.3009
-1.8563 NO -0.2810
-2.7857 NOT -0.2908
-3.0867 NOTHING -0.2949
-2.6888 NOW -0.2946
-2.6096 OF -0.2900
-3.3877 OLD -0.3005
-2.3464 ON -0.2825
-3.3877 ONCE -0.3009
-2.5426 ONE -0.2920
-3.3877 ONLY -0.3009
-3.3877 OPEN -0.3005
-2.9106 OR -0.2994
-3.3877 ORDER -0.2985
-2.6096 OUT -0.2919
-3.3877 OUTSIDE -0.2962
-3.3877 OWN -0.3009
-2.7857 PA -0.2944
-3.3877 PART -0.2998
-3.3877 PAST -0.2910
-3.3877 PEN -0.2962
-2.7857 PEOPLE -0.2996
-3.3877 PICK -0.2946
-3.0867 PLEASE -0.3005
-3.3877 PRAY -0.2960
-3.3877 PRECIOUS -0.3000
-3.3877 PRESENT -0.3001
-3.3877 PRETENDING -0.2991
-3.3877 PROMISE -0.3000
-3.3877 PROPHESIZE -0.3007
-3.3877 PROTECT -0.2946
-3.3877 PUTS -0.3000
-3.3877 RAGIN -0.3007
-3.3877 RAIN -0.2957
-3.0867 RAPIDLY -0.3007
-3.3877 RATTLE -0.2980
-3.3877 REASON -0.2996
-2.6888 RIGHT -0.2942
-2.9106 ROAD -0.2906
-3.3877 ROADS -0.3001
-3.3877 ROAM -0.2962
-3.3877 ROOSTER -0.3009
-3.3877 ROUND -0.3003
-3.3877 SAIL -0.2996
-3.3877 SAND -0.2998
-3.3877 SAVIN -0.3007
-2.6096 SAY -0.2960
-3.3877 SAYING -0.2946
-3.0867 SAYS -0.3005
-3.3877 SCRUB -0.2910
-3.3877 SEA -0.2998
-3.3877 SEAS -0.3001
-3.0867 SEE -0.2910
-3.3877 SENATORS -0.3009
-3.3877 SERVANTS -0.3009
-3.3877 SHAKE -0.2980
-3.3877 SHAME -0.2910
-2.6888 SHE -0.3000
-2.9106 SHES -0.2906
-3.3877 SIDE -0.3000
-3.3877 SING -0.3009
-3.3877 SINK -0.3003
-3.0867 SIT -0.2962
-3.3877 SIXTY -0.3009
-3.3877 SKY -0.2998
-3.3877 SLAM -0.2910
-3.3877 SLAVE -0.2962
-3.3877 SLEEPS -0.2982
-3.3877 SLOW -0.2998
-2.9106 SO -0.2967
-3.3877 SOME -0.3003
-3.3877 SOMEHOW -0.3007
-2.5426 SOMEONE -0.2966
-3.3877 SOMETHIN -0.2946
-3.3877 SONS -0.2962
-2.9106 SOON -0.2955
-3.3877 SOUL -0.2985
-3.3877 SPEAK -0.3003
-3.3877 SPEED -0.2996
-3.3877 SPIN -0.2962
-3.3877 STALLED -0.3005
-3.3877 STAND -0.2982
-3.3877 STANDS -0.3007
-3.3877 START -0.3009
-3.3877 STAY -0.2985
-3.3877 STILL -0.2982
-3.0867 STONE -0.2955
-3.3877 STRONG -0.2978
-3.3877 SWIMMIN -0.3005
-3.3877 TAKE -0.3009
-3.3877 TALKING -0.3007
-3.3877 TALKS -0.2978
-3.3877 TELL -0.3009
-3.3877 TELLIN -0.3001
-2.6096 THAT -0.2867
-1.6396 THE -0.2882
-3.3877 THEE -0.2998
-3.3877 THEM -0.3000
-3.0867 THEN -0.2926
-3.3877 THERE -0.3009
-2.9106 THERES -0.2897
-2.6096 THEY -0.2985
-3.0867 THEYRE -0.3007
-2.7857 THINK -0.3003
-3.3877 THINKING -0.2962
-3.3877 THROUGHOUT -0.2910
-3.3877 TILL -0.2991
-2.6096 TIME -0.2884
-2.4847 TIMES -0.2982
-2.1325 TO -0.2782
-3.3877 TOLD -0.2957
-2.7857 TOO -0.2982
-3.3877 TRAVELING -0.2991
-3.3877 TREATED -0.2987
-3.0867 TRY -0.2940
-3.3877 TURN -0.3000
-3.0867 TURNING -0.2991
-3.3877 TWENTY -0.3009
-2.7857 TWICE -0.2998
-3.3877 UNDERSTAND -0.2980
-3.3877 UNKIND -0.2946
-2.7857 UP -0.2860
-2.6096 USE -0.2949
-3.3877 WAKE -0.3003
-3.3877 WALK -0.3005
-3.3877 WALKING -0.3005
-3.3877 WALLS -0.2960
-3.0867 WANT -0.2982
-3.3877 WANTED -0.2989
-3.3877 WANTS -0.2946
-3.3877 WAS -0.3009
-3.3877 WASHED -0.2978
-3.3877 WASTED -0.2989
-3.3877 WATERS -0.3007
-3.0867 WAY -0.2998
-3.3877 WE -0.3000
-3.3877 WEAK -0.2985
-2.5426 WELL -0.2895
-3.3877 WHAT -0.2946
-3.3877 WHEELS -0.3009
-3.0867 WHEN -0.2971
-3.3877 WHERE -0.2996
-3.3877 WHEREVER -0.2946
-3.3877 WHETHER -0.2946
-3.3877 WHILE -0.2946
-3.3877 WHITE -0.3009
-2.6888 WHO -0.2980
-3.3877 WHOLL -0.3009
-3.3877 WHOS -0.3000
-3.0867 WHY -0.2982
-3.3877 WIDE -0.2910
-2.4335 WILL -0.2942
-3.3877 WIN -0.2960
-2.6096 WIND -0.2888
-2.9106 WINDOW -0.2922
-3.3877 WINDOWS -0.2962
-3.3877 WISH -0.3009
-3.0867 WITH -0.2931
-3.3877 WOMAN -0.2962
-3.0867 WONDER -0.3007
-3.3877 WONDERIN -0.3009
-3.3877 WONT -0.3000
-3.3877 WORD -0.2982
-2.2117 WORK -0.2940
-3.3877 WORTH -0.3009
-3.3877 WOULD -0.3007
-3.3877 WRITERS -0.2962
-3.3877 WRONG -0.2998
-3.0867 YEARS -0.3001
-2.5426 YES -0.2994
-1.8314 YOU -0.2750
-3.0867 YOULL -0.2991
-2.1573 YOUR -0.2960
-2.4847 YOURE -0.2897

\2-grams:
-1.0000 <s> COME -0.2632
-1.0000 <s> GO -0.2430
-1.0000 <s> HOW 0.0000
-1.0000 <s> I -0.1663
-1.0000 <s> WELL -0.2688
-1.7324 A BATTLE 0.0000
-1.0334 A CHANGIN 0.0000
-1.7324 A CHILD 0.0000
-1.7324 A DIME 0.0000
-1.7324 A GOOD -0.1761
-1.7324 A GRIN 0.0000
-1.7324 A HEAD -0.1761
-1.7324 A LOVER 0.0000
-1.1303 A MAN -0.1249
-1.7324 A MOUNTAIN 0.0000
-1.7324 A NICKEL 0.0000
-1.7324 A SAYING 0.0000
-1.7324 A SHAME 0.0000
-1.7324 A STONE -0.1761
-1.7324 A THINKING 0.0000
-1.7324 A TRAVELING 0.0000
-1.7324 A WHITE 0.0000
-1.7324 A WOMAN 0.0000
-1.7324 A WONDERIN 0.0000
-1.7324 A WORD 0.0000
-0.3010 ABOUT MAN -0.2632
-0.3010 ACCEPT IT -0.2906
-0.3010 ADMIT THAT -0.2632
-0.3010 AGAIN AND -0.2846
-0.3010 AGIN PLEASE -0.1761
-0.3010 AH I -0.1663
-1.7924 AINT A -0.2929
-0.6163 AINT GONNA 0.0000
-0.8381 AINT ME -0.1165
-1.0142 AINT NO -0.2609
-0.3979 ALL RIGHT -0.0792
-1.0000 ALL THE -0.2971
-0.3010 ALLOWED TO -0.2632
-0.3010 ALONE YOU -0.2825
-0.3010 ALWAYS STRONG 0.0000
-0.6021 AM BUT -0.2852
-0.6021 AM TOLD 0.0000
-1.0000 AN ANYWAY -0.1761
-1.0000 AN DEFEND 0.0000
-1.0000 AN MORE -0.2762
-1.0000 AN NOTHING -0.1761
-1.0000 AN TO -0.2888
-1.7324 AND A -0.2929
-1.7324 AND ACCEPT 0.0000
-1.7324 AND ADMIT 0.0000
-1.7324 AND CRITICS 0.0000
-1.4314 AND DONT -0.2553
-1.7324 AND EVERY -0.1761
-1.7324 AND FATHERS 0.0000
-1.7324 AND GOD 0.0000
-1.7324 AND I -0.2937
-1.7324 AND ILL -0.1761
-1.0334 AND IT -0.0395
-1.7324 AND KEEP 0.0000
-1.7324 AND LAW 0.0000
-1.7324 AND MAKE 0.0000
-1.7324 AND PRAY 0.0000
-1.7324 AND RATTLE 0.0000
-1.7324 AND STAY 0.0000
-1.7324 AND THE -0.2971
-1.7324 AND THERES -0.2218
-1.4314 AND WONDER 0.0000
-1.7324 AND YOUR -0.2881
-0.6021 ANSWER IS -0.1963
-0.6021 ANSWER MY -0.2430
-0.3010 ANY MORE -0.2888
-0.6021 ANYWAY BUT -0.2341
-0.6021 ANYWAY IM -0.1761
-0.5051 ARE A -0.2588
-1.2041 ARE BEYOND 0.0000
-1.2041 ARE DRIVIN 0.0000
-1.2041 ARE RIGHT -0.2553
-0.6021 AROUND HIS -0.2632
-0.6021 AROUND YOU -0.2950
-0.3010 AS THE -0.2971
-0.3010 ASKS YOU -0.2950
-0.6021 AT THE -0.2971
-0.6021 AT YOUR -0.2881
-1.5051 BABE </s> -0.3010
-1.5051 BABE EVEN 0.0000
-1.0280 BABE GO -0.0969
-1.5051 BABE I -0.2937
-1.2041 BABE IM -0.1383
-1.2041 BABE IT -0.1091
-1.5051 BABE ITLL -0.1761
-1.0280 BABE NO -0.2609
-1.5051 BABE SO -0.2218
-1.5051 BABE THE -0.2971
-0.3010 BABEV IT -0.1091
-0.3010 BABY WHERE 0.0000
-0.3010 BACK INTO 0.0000
-0.3010 BALLS FLY 0.0000
-0.3010 BANNED THE -0.2771
-0.3010 BATTLE OUTSIDE 0.0000
-1.3010 BE DRENCHED 0.0000
-1.3010 BE FAST 0.0000
-1.3010 BE FREE 0.0000
-1.3010 BE GONE 0.0000
-1.3010 BE HE -0.2808
-1.0000 BE JUST -0.2341
-1.3010 BE LAST 0.0000
-1.3010 BE LATER -0.2430
-1.3010 BE PAST 0.0000
-0.3010 BEDROOM WINDOW -0.2218
-1.2041 BEFORE AND -0.2588
-0.9031 BEFORE HE -0.2596
-1.2041 BEFORE ITS -0.2688
-1.2041 BEFORE SHE -0.2553
-0.9031 BEFORE THEYRE 0.0000
-1.2041 BEFORE YOU -0.2888
-0.3010 BEHIND PA -0.2430
-0.3010 BEST TO -0.2632
-0.6021 BETTER BUT -0.2688
-0.6021 BETTER START 0.0000
-0.3010 BEYOND YOUR -0.2881
-0.3010 BLOCK UP -0.2430
-0.3010 BLOWIN IN -0.1576
-0.3010 BONE IF -0.2218
-0.3010 BORED I -0.1663
-0.3010 BOUND I -0.2863
-0.3010 BRAINS BEHIND 0.0000
-0.3010 BREAK OF -0.2632
-0.3010 BRICKS THE -0.2971
-0.7782 BROTHER MORE -0.2361
-0.4771 BROTHER NO -0.2009
-1.4472 BUT ALWAYS 0.0000
-0.8451 BUT DONT -0.2041
-1.4472 BUT EVERYBODY -0.1761
-1.1461 BUT I -0.2863
-0.9700 BUT IT -0.1091
-1.1461 BUT SHE -0.2041
-1.4472 BUT WE 0.0000
-0.3010 BY NOW -0.2553
-0.7782 CALL A -0.2929
-0.7782 CALL DONT -0.2788
-0.7782 CALL HIM 0.0000
-0.3010 CALLING OUT -0.2218
-0.6990 CAN A -0.2588
-1.0000 CAN HEAR -0.1761
-1.0000 CAN SEE 0.0000
-1.0000 CAN SOME 0.0000
-0.3010 CANNON BALLS 0.0000
-0.9031 CANT HEAR -0.1761
-0.9031 CANT LEND 0.0000
-0.9031 CANT TELL 0.0000
-0.9031 CANT UNDERSTAND 0.0000
-0.3010 CAST THE -0.2971
-0.3010 CHANCE WONT 0.0000
-0.3010 CHANGE MY -0.2825
-1.0000 CHANGIN </s> -0.3010
-0.5229 CHANGIN COME -0.1761
-1.0000 CHANGIN THE -0.2971
-0.3010 CHILD I -0.2863
-0.3010 CHOSEN SPEED 0.0000
-0.3010 CIGAR OUT -0.2632
-0.3010 CLOSE HIS -0.2218
-1.0792 COME AGAIN 0.0000
-1.0792 COME EACH -0.1249
-1.0792 COME GATHER -0.1761
-1.0792 COME MOTHERS 0.0000
-1.0792 COME SENATORS 0.0000
-1.0792 COME WRITERS 0.0000
-0.3010 COMMAND YOUR -0.2881
-0.3010 CONGRESSMEN PLEASE -0.1761
-0.3010 CONSTANTLY AN -0.2553
-0.3010 COULD HAVE -0.2430
-0.3010 CRITICIZE WHAT 0.0000
-0.3010 CRITICS WHO -0.2553
-0.3010 CROWS AT -0.1761
-0.3010 CRY YES 0.0000
-0.3010 CURSE IT -0.2576
-0.3010 DARK SIDE 0.0000
-0.3010 DAUGHTERS ARE -0.2730
-0.3010 DAWN LOOK -0.1761
-0.3010 DEATHS WILL -0.2762
-0.3010 DEFEND YOU -0.2950
-0.3010 DID TOO -0.2430
-0.3010 DIE FOR -0.2771
-0.3010 DIED THE -0.2771
-0.3010 DIME HE -0.2808
-0.6021 DO OR -0.2218
-0.6021 DO SOMEHOW 0.0000
-0.3010 DOESNT SEE 0.0000
-0.6021 DONE BEFORE -0.2730
-0.6021 DONE BETTER -0.1761
-1.3010 DONT BLOCK 0.0000
-1.3010 DONT CRITICIZE 0.0000
-1.3010 DONT KNOW 0.0000
-1.3010 DONT MIND -0.1761
-1.3010 DONT SPEAK 0.0000
-1.3010 DONT STAND 0.0000
-0.6990 DONT THINK 0.0000
-0.7782 DOOR AH 0.0000
-0.7782 DOOR BUT -0.2518
-0.7782 DOOR I -0.1663
-0.3010 DOORWAY DONT -0.2788
-0.3010 DOVE SAIL 0.0000
-0.7782 DOWN BEFORE -0.2730
-0.7782 DOWN THE -0.2932
-0.7782 DOWN YOU -0.2825
-0.3010 DRAWN THE -0.2971
-0.3010 DRENCHED TO -0.2762
-0.3010 DRIVIN ME -0.2840
-0.7782 EACH AND -0.2929
-0.4771 EACH TIME -0.1761
-0.3010 EARS MUST -0.2553
-0.3010 EIGHT BUT -0.2688
-0.3010 EVEN YOU -0.2950
-0.6021 EVERY DOOR -0.2218
-0.6021 EVERY TIME -0.1761
-0.6021 EVERYBODY SAYS 0.0000
-0.6021 EVERYBODY WANTS 0.0000
-0.3010 EVERYTHING INSIDE 0.0000
-0.3010 EXIST BEFORE -0.2109
-0.6021 EYES FOR -0.2771
-0.6021 EYES WIDE 0.0000
-0.3010 FACE JUST -0.2688
-0.3010 FADIN AND -0.2929
-0.3010 FALL TO -0.2888
-0.3010 FARE THEE 0.0000
-0.3010 FARM NO -0.2009
-0.3010 FAST AS 0.0000
-0.3010 FATHERS THROUGHOUT 0.0000
-0.3010 FINES YOU -0.2950
-0.3010 FIRST ONE -0.2341
-0.3010 FLOOR I -0.1663
-0.3010 FLOWERS CONSTANTLY 0.0000
-0.3010 FLY BEFORE -0.2430
-0.3010 FOLD MY -0.2825
-1.2711 FOR BABE -0.2430
-1.7482 FOR HE -0.2808
-1.7482 FOR KICKS 0.0000
-0.7939 FOR MAGGIES -0.1461
-1.7482 FOR RAIN 0.0000
-1.2711 FOR SOMEONE -0.1549
-0.9031 FOR THE -0.2730
-1.2711 FOR YOU -0.2762
-0.3010 FOREVER BANNED 0.0000
-0.3010 FOUR I -0.1663
-0.3010 FREE YES 0.0000
-0.3010 FRIEND IS -0.1963
-0.6021 FROM MY -0.2825
-0.6021 FROM THE -0.2971
-0.3010 FULL OF -0.2632
-0.6021 GAL I -0.2863
-0.6021 GAL LIKE -0.2430
-0.6021 GATHER FLOWERS 0.0000
-0.6021 GATHER ROUND 0.0000
-0.3010 GAVE HER 0.0000
-0.6021 GET BORED 0.0000
-0.6021 GET OUT -0.2218
-0.3010 GETS HURT 0.0000
-0.6021 GO LIGHTLY 0.0000
-0.9031 GO MELT 0.0000
-0.9031 GO WAY -0.1761
-0.3010 GOD AND -0.2929
-0.3010 GONE YOURE -0.2730
-0.3010 GONNA WORK 0.0000
-0.6021 GOOD A -0.2929
-0.6021 GOOD TIME -0.2632
-0.3010 GOODBYES TOO -0.2430
-0.3010 GOT A -0.2929
-0.3010 GRIN IF -0.2218
-0.3010 GROUND IM -0.1761
-0.3010 GROWN AND -0.2929
-0.3010 GUARD STANDS 0.0000
-0.3010 HALL FOR -0.2932
-0.3010 HAND FOR -0.2430
-0.7782 HANDS AND -0.2929
-0.4771 HANDS YOU -0.2888
-0.3010 HAS STALLED 0.0000
-0.9031 HAVE BEFORE -0.2430
-0.9031 HAVE DIED 0.0000
-0.9031 HAVE DONE -0.1761
-0.9031 HAVE GROWN 0.0000
-0.3010 HAVIN A -0.2929
-1.3424 HE ASKS 0.0000
-1.0414 HE CAN -0.2041
-1.3424 HE FINES 0.0000
-1.0414 HE HANDS -0.1249
-1.3424 HE JUST -0.2688
-1.3424 HE KNOWS 0.0000
-1.3424 HE PUTS 0.0000
-1.3424 HE THAT -0.2632
-1.3424 HE WHO -0.2553
-0.6021 HEAD FULL 0.0000
-0.6021 HEAD PRETENDING 0.0000
-0.6021 HEAR PEOPLE -0.2430
-0.6021 HEAR YOU -0.2950
-0.6021 HEART BUT -0.2688
-0.6021 HEART SOMEONE -0.2341
-0.3010 HEED THE -0.2971
-0.3010 HER MY -0.2825
-0.3010 HERE MOVING 0.0000
-0.3010 HIM A -0.2676
-1.0792 HIS BEDROOM 0.0000
-1.0792 HIS CIGAR 0.0000
-1.0792 HIS DOOR -0.2218
-1.0792 HIS EYES -0.1761
-1.0792 HIS HEAD -0.1761
-1.0792 HIS HEART -0.1761
-0.3010 HONEY BABY 0.0000
-0.3010 HOW MANY -0.0414
-0.3010 HURT WILL -0.2499
-0.5740 I AINT -0.1714
-1.4771 I AM 0.0000
-1.4771 I CANT -0.1761
-1.7782 I DONT -0.2788
-1.7782 I GAVE 0.0000
-1.7782 I GOT 0.0000
-1.7782 I JUST -0.2688
-1.7782 I NEVER -0.2632
-1.7782 I ONCE 0.0000
-1.7782 I TRY -0.1761
-1.7782 I WAKE 0.0000
-1.7782 I WILL -0.2762
-1.7782 I WISH 0.0000
-0.3010 IDEAS THAT -0.2632
-0.7782 IF YOU -0.2888
-0.7782 IF YOUR -0.2881
-0.7782 IF YOURE -0.2730
-0.6021 ILL BE -0.2788
-0.6021 ILL JUST -0.2688
-0.9031 IM A -0.2846
-1.2041 IM BOUND 0.0000
-0.6021 IM NOT 0.0000
-1.2041 IM ON -0.2596
-1.2041 IN CALLING 0.0000
-1.5051 IN HERE 0.0000
-1.5051 IN SPIN 0.0000
-0.5509 IN THE -0.2646
-1.2041 IN TURNING 0.0000
-1.5051 IN YOUR -0.2881
-0.3010 INSANE ITS -0.2688
-0.3010 INSIDE IS -0.2688
-0.3010 INTO THE -0.2971
-0.6690 IS BLOWIN 0.0000
-1.4472 IS CAST 0.0000
-1.4472 IS DRAWN 0.0000
-1.1461 IS MADE 0.0000
-1.4472 IS RAGIN 0.0000
-1.1461 IS RAPIDLY 0.0000
-1.4472 IS WORTH 0.0000
-0.4472 IT AINT -0.1807
-1.0212 IT IS -0.2156
-1.6232 IT TAKE 0.0000
-1.6232 IT THAT -0.2632
-0.6021 ITLL NEVER -0.2632
-0.6021 ITLL SOON -0.2218
-1.1461 ITS A -0.2929
-0.5441 ITS ALL -0.0792
-1.1461 ITS NAMIN 0.0000
-1.1461 ITS WASHED 0.0000
-1.1461 JUST DOESNT 0.0000
-1.1461 JUST FOR -0.2932
-1.1461 JUST GET -0.1761
-1.1461 JUST KINDA 0.0000
-0.8451 JUST LIKE -0.1761
-1.1461 JUST SAY -0.2632
-0.3010 KEEP YOUR -0.2881
-0.3010 KICKS HIS -0.2632
-0.3010 KINDA WASTED 0.0000
-0.3010 KNOW BY 0.0000
-0.3010 KNOWED AND -0.2588
-0.3010 KNOWS THAT -0.2632
-0.3010 LAND AND -0.2846
-0.3010 LAST FOR -0.2430
-0.4260 LATER BE -0.2304
-0.9031 LATER TO -0.2888
-0.3010 LAW EVERYBODY -0.1761
-0.3010 LEAVE AT -0.1761
-0.3010 LEDGE BABE -0.2583
-0.3010 LEND YOUR -0.2881
-0.3010 LET YOUR -0.2881
-0.3010 LIFE AN -0.2553
-0.4771 LIGHT BABE -0.2583
-0.7782 LIGHT I -0.2937
-0.6021 LIGHTLY FROM -0.1761
-0.6021 LIGHTLY ON -0.2596
-0.9031 LIKE A -0.2929
-0.9031 LIKE I -0.2863
-0.9031 LIKE THEM 0.0000
-0.9031 LIKE YOU -0.2950
-0.3010 LINE IT -0.2576
-0.3010 LONG HONEY 0.0000
-0.6021 LOOK OUT -0.2632
-0.6021 LOOK UP -0.2430
-0.3010 LOOKIN FOR -0.2518
-0.3010 LOOKING FOR -0.2771
-0.3010 LOSER NOW -0.0792
-0.3010 LOVED A -0.2929
-0.3010 LOVER FOR -0.2771
-0.3010 MA NO -0.2009
-0.6021 MADE OF -0.2632
-0.6021 MADE OUT -0.2218
-1.0000 MAGGIES BROTHER 0.0000
-0.6990 MAGGIES FARM 0.0000
-1.0000 MAGGIES MA 0.0000
-1.0000 MAGGIES PA -0.0969
-0.3010 MAKE ME -0.2840
-0.3010 MAKES ME -0.2840
-1.0792 MAN AND -0.2929
-1.0792 MAN HAVE -0.2430
-1.0792 MAN HOW 0.0000
-1.0792 MAN LOOK -0.1761
-1.0792 MAN TURN 0.0000
-1.0792 MAN WALK 0.0000
-1.3010 MANY DEATHS 0.0000
-1.3010 MANY EARS 0.0000
-1.3010 MANY PEOPLE -0.2430
-1.3010 MANY ROADS 0.0000
-1.3010 MANY SEAS 0.0000
-0.8239 MANY TIMES -0.2109
-1.0000 MANY YEARS 0.0000
-0.7160 ME BABE -0.2272
-1.4150 ME BABEV 0.0000
-1.4150 ME CHANGE 0.0000
-1.4150 ME INSANE 0.0000
-1.4150 ME SCRUB 0.0000
-1.4150 ME UNKIND 0.0000
-0.9379 ME YOURE -0.1383
-0.3010 MELT BACK 0.0000
-0.6021 MIND AND -0.2929
-0.6021 MIND YOU -0.2950
-1.5563 MORE </s> -0.3010
-1.2553 MORE BUT -0.2518
-0.8573 MORE I -0.1663
-1.5563 MORE IM -0.2430
-0.9542 MORE NO -0.2747
-0.8573 MORE WELL -0.0580
-0.3010 MORNING FOLD 0.0000
-0.3010 MOTHERS AND -0.2929
-0.3010 MOUNTAIN EXIST 0.0000
-0.3010 MOVING AN -0.2553
-0.3010 MUCH TALKING 0.0000
-0.5229 MUST A -0.2588
-1.0000 MUST ONE -0.2688
-1.0000 MUST THE -0.2971
-1.3802 MY BEST 0.0000
-0.9031 MY FRIEND 0.0000
-1.3802 MY HANDS -0.2218
-1.3802 MY HEART -0.1761
-1.3802 MY MIND -0.1761
-1.0792 MY NAME 0.0000
-1.3802 MY PRECIOUS 0.0000
-1.3802 MY SOUL 0.0000
-1.3802 MY WINDOW -0.2218
-0.3010 NAME GAL 0.0000
-0.3010 NAMIN FOR -0.2430
-0.3010 NATIONAL GUARD 0.0000
-0.3010 NEED YOU -0.2825
-1.0792 NEVER DID 0.0000
-1.0792 NEVER DO -0.1761
-1.0792 NEVER DONE -0.1761
-1.0792 NEVER KNOWED 0.0000
-1.0792 NEVER TO -0.2888
-1.0792 NEVER WEAK 0.0000
-0.3010 NEW ONE -0.2688
-0.3010 NICKEL HE -0.2596
-0.3010 NIGHT EVERYTHING 0.0000
-1.2304 NO I -0.1663
-1.3554 NO IT -0.1091
-0.6864 NO MORE -0.0669
-1.0544 NO NO -0.2394
-1.8325 NO TELLIN 0.0000
-1.0544 NO USE 0.0000
-0.9031 NOT ALONE 0.0000
-0.4260 NOT THE -0.2892
-0.6021 NOTHING IN -0.2872
-0.6021 NOTHING MORE -0.2762
-1.0000 NOW AND -0.2588
-0.3979 NOW WILL -0.1597
-1.0792 OF BRICKS 0.0000
-1.0792 OF DAWN 0.0000
-1.0792 OF IDEAS 0.0000
-1.0792 OF STONE -0.1761
-0.7782 OF THE -0.2892
-0.3010 OLD ROAD -0.2218
-1.3424 ON BUT -0.2341
-0.5643 ON MAGGIES -0.2041
-1.0414 ON THE -0.2932
-1.0414 ON YOUR -0.2747
-0.3010 ONCE LOVED 0.0000
-1.1461 ONE IF -0.2218
-1.1461 ONE MAN -0.2632
-0.8451 ONE NOW -0.0792
-0.6690 ONE YOU -0.2825
-0.3010 ONLY LET 0.0000
-0.3010 OPEN EACH -0.2218
-0.7782 OR SAY -0.2632
-0.7782 OR WRONG 0.0000
-0.7782 OR YOULL -0.1761
-0.3010 ORDER IS -0.2688
-1.0792 OUT IN -0.2872
-0.7782 OUT MY -0.2632
-0.7782 OUT OF -0.1761
-1.0792 OUT YOUR -0.2881
-0.3010 OUTSIDE AND -0.2588
-0.3010 OWN CHOSEN 0.0000
-0.4260 PA NO -0.2009
-0.9031 PA SHES -0.2218
-0.3010 PART SOMEONE -0.1963
-0.3010 PAST THE -0.2971
-0.3010 PEN AND -0.2929
-0.9031 PEOPLE CRY 0.0000
-0.9031 PEOPLE EXIST 0.0000
-0.9031 PEOPLE HAVE -0.2430
-0.9031 PEOPLE WHEREVER 0.0000
-0.3010 PICK YOU -0.2950
-0.6021 PLEASE GET -0.1761
-0.6021 PLEASE HEED 0.0000
-0.3010 PRAY FOR -0.2932
-0.3010 PRECIOUS TIME -0.2632
-0.3010 PRESENT NOW -0.0792
-0.3010 PRETENDING HE -0.2808
-0.3010 PROMISE NEVER -0.2632
-0.3010 PROPHESIZE WITH -0.1761
-0.3010 PROTECT YOU -0.2888
-0.3010 PUTS HIS -0.2632
-0.3010 RAGIN ITLL -0.1761
-0.3010 RAIN I -0.2937
-0.6021 RAPIDLY AGIN 0.0000
-0.6021 RAPIDLY FADIN 0.0000
-0.3010 RATTLE YOUR -0.2881
-0.3010 REASON IM -0.2430
-1.0000 RIGHT </s> -0.3010
-1.0000 RIGHT AND -0.2588
-1.0000 RIGHT OR -0.2218
-0.6990 RIGHT SO -0.1249
-0.7782 ROAD BUT -0.2688
-0.7782 ROAD I -0.2937
-0.7782 ROAD IS -0.2688
-0.3010 ROADS MUST -0.1461
-0.3010 ROAM AND -0.2929
-0.3010 ROOSTER CROWS 0.0000
-0.3010 ROUND PEOPLE -0.2430
-0.3010 SAIL BEFORE -0.2730
-0.3010 SAND YES 0.0000
-0.3010 SAVIN THEN -0.1761
-1.0792 SAY FARE 0.0000
-1.0792 SAY SING 0.0000
-1.0792 SAY TO -0.2888
-0.6021 SAY YOURE -0.0969
-0.3010 SAYING YOU -0.2950
-0.3010 SAYS SHES -0.1249
-0.3010 SCRUB THE -0.2971
-0.3010 SEA YES 0.0000
-0.3010 SEAS MUST -0.1461
-0.3010 SEE THE -0.2730
-0.3010 SENATORS CONGRESSMEN 0.0000
-0.3010 SERVANTS ABOUT 0.0000
-0.3010 SHAKE YOUR -0.2881
-0.3010 SHAME THE -0.2971
-1.0000 SHE MAKES 0.0000
-1.0000 SHE SAYS 0.0000
-1.0000 SHE SLEEPS 0.0000
-1.0000 SHE TALKS 0.0000
-1.0000 SHE WANTED 0.0000
-0.7782 SHES SIXTY 0.0000
-0.7782 SHES THE -0.2971
-0.7782 SHES TWENTY 0.0000
-0.3010 SIDE OF -0.2218
-0.3010 SING WHILE 0.0000
-0.3010 SINK LIKE -0.2430
-0.3010 SIT AND -0.2846
-0.3010 SIXTY EIGHT 0.0000
-0.3010 SKY YES 0.0000
-0.3010 SLAM THE -0.2971
-0.3010 SLAVE AND -0.2929
-0.3010 SLEEPS IN -0.1576
-0.3010 SLOW ONE -0.2341
-0.7782 SO ILL -0.1761
-0.7782 SO IT -0.1091
-0.7782 SO LONG 0.0000
-0.3010 SOME PEOPLE -0.2430
-0.3010 SOMEHOW WHEN -0.1761
-0.6690 SOMEONE TO -0.2632
-0.8451 SOMEONE WHO -0.2041
-1.1461 SOMEONE WHOLL 0.0000
-1.1461 SOMEONE WHOS 0.0000
-0.3010 SOMETHIN YOU -0.2950
-0.3010 SONS AND -0.2929
-0.7782 SOON FOR -0.2430
-0.7782 SOON SHAKE 0.0000
-0.7782 SOON YOULL -0.1761
-0.3010 SOUL BUT -0.2341
-0.3010 SPEAK TOO -0.2430
-0.3010 SPEED IM -0.1761
-0.3010 SPIN AND -0.2929
-0.3010 STALLED THERES -0.2218
-0.3010 STAND IN -0.1576
-0.3010 STANDS AROUND -0.1761
-0.3010 START SWIMMIN 0.0000
-0.3010 STAY BUT -0.2852
-0.3010 STILL IN -0.2872
-0.6021 STONE FOR -0.2430
-0.6021 STONE THERES -0.2218
-0.3010 STRONG TO -0.2888
-0.3010 SWIMMIN OR -0.2218
-0.3010 TAKE TILL 0.0000
-0.3010 TALKING ANYWAY -0.1761
-0.3010 TALKS TO -0.2888
-0.3010 TELL GOODBYES 0.0000
-0.3010 TELLIN WHO -0.2553
-1.0792 THAT ARE -0.2730
-1.0792 THAT GETS 0.0000
-1.0792 THAT ITS -0.2688
-1.0792 THAT SOON -0.2218
-1.0792 THAT THE -0.2971
-1.0792 THAT TOO -0.2430
-1.2711 THE ANSWER 0.0000
-2.0492 THE BONE 0.0000
-2.0492 THE BRAINS 0.0000
-2.0492 THE BREAK 0.0000
-2.0492 THE CALL -0.2218
-2.0492 THE CANNON 0.0000
-2.0492 THE CHANCE 0.0000
-2.0492 THE CURSE 0.0000
-2.0492 THE DARK 0.0000
-2.0492 THE DOOR -0.2218
-2.0492 THE DOORWAY 0.0000
-2.0492 THE FIRST 0.0000
-2.0492 THE FLOOR 0.0000
-2.0492 THE GROUND 0.0000
-2.0492 THE HALL 0.0000
-2.0492 THE LAND 0.0000
-2.0492 THE LEDGE 0.0000
-2.0492 THE LIGHT -0.2218
-2.0492 THE LINE 0.0000
-2.0492 THE LOSER 0.0000
-2.0492 THE MORNING 0.0000
-2.0492 THE NATIONAL 0.0000
-2.0492 THE NEW 0.0000
-2.0492 THE NIGHT 0.0000
-1.5721 THE ONE -0.1963
-2.0492 THE ORDER 0.0000
-2.0492 THE PRESENT 0.0000
-2.0492 THE REASON 0.0000
-1.7482 THE ROAD -0.1249
-2.0492 THE SAND 0.0000
-2.0492 THE SEA 0.0000
-2.0492 THE SERVANTS 0.0000
-2.0492 THE SKY 0.0000
-2.0492 THE SLOW 0.0000
-1.3502 THE TIMES -0.1383
-2.0492 THE WATERS 0.0000
-2.0492 THE WAY -0.1761
-2.0492 THE WHEELS 0.0000
-1.2711 THE WIND 0.0000
-0.3010 THEE WELL -0.1963
-0.3010 THEM THEY -0.2632
-0.6021 THEN HE -0.2808
-0.6021 THEN YOU -0.2950
-0.3010 THERE WAS 0.0000
-0.7782 THERES A -0.2929
-0.7782 THERES NO -0.2946
-0.7782 THERES NOTHING -0.1761
-0.3802 THEY ARE -0.1383
-1.0792 THEY SAY -0.2632
-0.6021 THEYRE ALLOWED 0.0000
-0.6021 THEYRE FOREVER 0.0000
-0.3010 THINK TWICE 0.0000
-0.3010 THINKING AND -0.2929
-0.3010 THROUGHOUT THE -0.2971
-0.3010 TILL HE -0.2808
-1.0792 TIME BUT -0.2341
-1.0792 TIME THEN -0.1761
-1.0792 TIME TO -0.2888
-0.6021 TIME YOU -0.2762
-1.2041 TIMES CAN -0.2041
-0.9031 TIMES MUST -0.0792
-0.5051 TIMES THEY -0.0669
-1.5563 TO ALL -0.2553
-1.0792 TO BE -0.2304
-1.2553 TO CLOSE 0.0000
-1.5563 TO COME -0.2632
-1.5563 TO GATHER -0.1761
-1.5563 TO OPEN 0.0000
-1.5563 TO PART 0.0000
-1.5563 TO PROTECT 0.0000
-1.2553 TO SIT 0.0000
-1.2553 TO THE -0.2932
-1.5563 TO TRY -0.1761
-1.5563 TO WIN 0.0000
-1.5563 TO YOU -0.2950
-0.3010 TOLD I -0.2937
-0.9031 TOO GOOD -0.1761
-0.9031 TOO MANY -0.2788
-0.9031 TOO MUCH 0.0000
-0.9031 TOO SOON -0.2218
-0.3010 TRAVELING ON -0.2808
-0.3010 TREATED ME -0.2840
-0.6021 TRY AND -0.2929
-0.6021 TRY MY -0.2825
-0.3010 TURN HIS -0.2632
-0.3010 TURNING ON -0.2596
-0.3010 TWENTY FOUR 0.0000
-0.3010 TWICE ITS -0.1549
-0.3010 UNDERSTAND YOUR -0.2881
-0.3010 UNKIND YOU -0.2950
-0.9031 UP BEFORE -0.2430
-0.9031 UP EACH -0.1249
-0.9031 UP IN -0.1576
-0.9031 UP THE -0.2971
-0.4771 USE IN -0.2430
-0.7782 USE TO -0.2762
-0.3010 WAKE UP -0.2430
-0.3010 WALK DOWN -0.2218
-0.3010 WALKING DOWN -0.2218
-0.3010 WALLS FOR -0.2430
-0.3010 WANT BABE -0.2583
-0.3010 WANTED MY -0.2825
-0.3010 WANTS YOU -0.2950
-0.3010 WAS SOMETHIN 0.0000
-0.3010 WASHED TO -0.2762
-0.3010 WASTED MY -0.2825
-0.3010 WATERS AROUND -0.1761
-0.6021 WAY FROM -0.1761
-0.6021 WAY SHE -0.2553
-0.3010 WE NEVER -0.2632
-0.3010 WEAK BUT -0.2852
-0.8451 WELL HE -0.2374
-0.6690 WELL I -0.1461
-1.1461 WELL IT -0.1091
-1.1461 WELL WHEN -0.1761
-0.3010 WHAT YOU -0.2888
-0.3010 WHEELS STILL 0.0000
-0.6021 WHEN SHE -0.2553
-0.6021 WHEN YOUR -0.2881
-0.3010 WHERE IM -0.2730
-0.3010 WHEREVER YOU -0.2950
-0.3010 WHETHER YOU -0.2950
-0.3010 WHILE YOU -0.2950
-0.3010 WHITE DOVE 0.0000
-1.0000 WHO HAS 0.0000
-1.0000 WHO PROPHESIZE 0.0000
-1.0000 WHO THAT -0.2632
-0.6990 WHO WILL -0.2499
-0.3010 WHOLL PICK 0.0000
-0.3010 WHOS NEVER -0.2632
-0.3010 WHY BABE -0.2730
-0.3010 WIDE THE -0.2971
-0.9542 WILL BE -0.2553
-1.2553 WILL DIE 0.0000
-1.2553 WILL IT -0.2906
-0.7782 WILL LATER -0.0969
-1.2553 WILL ONLY 0.0000
-1.2553 WILL PROMISE 0.0000
-0.3010 WIN FOR -0.2430
-1.0792 WIND </s> -0.3010
-0.6021 WIND THE -0.2771
-0.7782 WIND YES 0.0000
-0.7782 WINDOW AND -0.2929
-0.7782 WINDOW IT -0.2576
-0.7782 WINDOW LEAVE 0.0000
-0.3010 WINDOWS AND -0.2929
-0.3010 WISH THERE 0.0000
-0.6021 WITH A -0.2929
-0.6021 WITH YOUR -0.2881
-0.3010 WOMAN A -0.2929
-0.3010 WONDER WHY 0.0000
-0.3010 WONDERIN WALKING 0.0000
-0.3010 WONT COME -0.2632
-0.3010 WORD BABE -0.2872
-0.5229 WORK FOR -0.2249
-0.6990 WORK ON -0.1627
-0.3010 WORTH SAVIN 0.0000
-0.3010 WOULD DO -0.1761
-0.3010 WRITERS AND -0.2929
-0.3010 WRONG SOMEONE -0.1963
-0.3010 YEARS CAN -0.1461
-0.3010 YES HOW 0.0000
-1.5563 YOU A -0.2846
-1.5563 YOU AN -0.2041
-1.8573 YOU ANY 0.0000
-1.8573 YOU ARE -0.2730
-1.8573 YOU BETTER -0.1761
-1.5563 YOU CALL -0.1249
-1.5563 YOU CANT -0.1761
-1.8573 YOU COULD 0.0000
-1.8573 YOU DONT -0.2788
-1.8573 YOU EVERY -0.1761
-1.8573 YOU FALL 0.0000
-1.8573 YOU HAVE -0.2430
-1.8573 YOU IS -0.2852
-1.8573 YOU JUST -0.2688
-1.8573 YOU LIFE 0.0000
-1.8573 YOU NEED 0.0000
-1.8573 YOU NEVER -0.2632
-1.8573 YOU ROAM 0.0000
-1.3802 YOU SAY -0.1761
-1.8573 YOU SLAM 0.0000
-1.8573 YOU SLAVE 0.0000
-1.8573 YOU SOMEONE -0.1963
-1.8573 YOU TO -0.2632
-1.8573 YOU TREATED 0.0000
-1.8573 YOU UP -0.2430
-1.5563 YOU WANT 0.0000
-1.8573 YOU WHETHER 0.0000
-1.8573 YOU WITH -0.1761
-1.8573 YOU WOULD 0.0000
-0.6021 YOULL BE -0.2788
-0.6021 YOULL SINK 0.0000
-1.5315 YOUR COMMAND 0.0000
-1.5315 YOUR DAUGHTERS 0.0000
-1.5315 YOUR DOWN -0.2218
-1.5315 YOUR EYES -0.1761
-1.5315 YOUR FACE 0.0000
-1.5315 YOUR HAND 0.0000
-1.2304 YOUR LIGHT -0.1249
-1.5315 YOUR OLD 0.0000
-1.5315 YOUR OWN 0.0000
-1.5315 YOUR PEN 0.0000
-1.5315 YOUR ROOSTER 0.0000
-1.5315 YOUR SONS 0.0000
-1.5315 YOUR TIME -0.2632
-1.5315 YOUR WALLS 0.0000
-1.5315 YOUR WINDOW -0.2218
-1.5315 YOUR WINDOWS 0.0000
-1.2041 YOURE HAVIN 0.0000
-0.5051 YOURE LOOKIN 0.0000
-1.2041 YOURE LOOKING 0.0000
-1.2041 YOURE THE -0.2971

\3-grams:
-0.3010 <s> COME GATHER
-0.3010 <s> GO WAY
-0.3010 <s> HOW MANY
-0.3010 <s> I AINT
-0.3010 <s> WELL IT
-0.3010 A BATTLE OUTSIDE
-1.0000 A CHANGIN </s>
-0.5229 A CHANGIN COME
-1.0000 A CHANGIN THE
-0.3010 A CHILD I
-0.3010 A DIME HE
-0.3010 A GOOD TIME
-0.3010 A GRIN IF
-0.3010 A HEAD FULL
-0.3010 A LOVER FOR
-0.9031 A MAN HOW
-0.9031 A MAN LOOK
-0.9031 A MAN TURN
-0.9031 A MAN WALK
-0.3010 A MOUNTAIN EXIST
-0.3010 A NICKEL HE
-0.3010 A SAYING YOU
-0.3010 A SHAME THE
-0.3010 A STONE FOR
-0.3010 A THINKING AND
-0.3010 A TRAVELING ON
-0.3010 A WHITE DOVE
-0.3010 A WOMAN A
-0.3010 A WONDERIN WALKING
-0.3010 A WORD BABE
-0.3010 ABOUT MAN AND
-0.3010 ACCEPT IT THAT
-0.3010 ADMIT THAT THE
-0.3010 AGAIN AND DONT
-0.3010 AGIN PLEASE GET
-0.3010 AH I AINT
-0.3010 AINT A SAYING
-0.3010 AINT GONNA WORK
-0.5563 AINT ME BABE
-1.2553 AINT ME BABEV
-0.7782 AINT ME YOURE
-0.3010 AINT NO USE
-0.9031 ALL RIGHT </s>
-0.9031 ALL RIGHT AND
-0.6021 ALL RIGHT SO
-0.3010 ALL THE SERVANTS
-0.3010 ALLOWED TO BE
-0.3010 ALONE YOU SAY
-0.3010 ALWAYS STRONG TO
-0.3010 AM BUT EVERYBODY
-0.3010 AM TOLD I
-0.3010 AN ANYWAY IM
-0.3010 AN DEFEND YOU
-0.3010 AN MORE BUT
-0.3010 AN NOTHING MORE
-0.3010 AN TO COME
-0.3010 AND A WONDERIN
-0.3010 AND ACCEPT IT
-0.3010 AND ADMIT THAT
-0.3010 AND CRITICS WHO
-0.6021 AND DONT CRITICIZE
-0.6021 AND DONT SPEAK
-0.3010 AND EVERY DOOR
-0.3010 AND FATHERS THROUGHOUT
-0.3010 AND GOD AND
-0.3010 AND I JUST
-0.3010 AND ILL BE
-0.3979 AND IT AINT
-1.0000 AND IT IS
-0.3010 AND KEEP YOUR
-0.3010 AND LAW EVERYBODY
-0.3010 AND MAKE ME
-0.3010 AND PRAY FOR
-0.3010 AND RATTLE YOUR
-0.3010 AND STAY BUT
-0.3010 AND THE FIRST
-0.3010 AND THERES NO
-0.3010 AND WONDER WHY
-0.3010 AND YOUR DAUGHTERS
-0.3010 ANSWER IS BLOWIN
-0.3010 ANSWER MY FRIEND
-0.3010 ANY MORE IM
-0.3010 ANYWAY BUT DONT
-0.3010 ANYWAY IM NOT
-0.3010 ARE A CHANGIN
-0.3010 ARE BEYOND YOUR
-0.3010 ARE DRIVIN ME
-0.3010 ARE RIGHT OR
-0.3010 AROUND HIS DOOR
-0.3010 AROUND YOU HAVE
-0.3010 AS THE PRESENT
-0.3010 ASKS YOU WITH
-0.3010 AT THE BREAK
-0.3010 AT YOUR OWN
-0.3010 BABE EVEN YOU
-0.4771 BABE GO LIGHTLY
-0.7782 BABE GO MELT
-0.3010 BABE I WILL
-0.6021 BABE IM NOT
-0.6021 BABE IM ON
-0.3010 BABE IT AINT
-0.3010 BABE ITLL NEVER
-0.3010 BABE NO NO
-0.3010 BABE SO ILL
-0.3010 BABE THE LIGHT
-0.3010 BABEV IT AINT
-0.3010 BABY WHERE IM
-0.3010 BACK INTO THE
-0.3010 BALLS FLY BEFORE
-0.3010 BANNED THE ANSWER
-0.3010 BATTLE OUTSIDE AND
-0.3010 BE DRENCHED TO
-0.3010 BE FAST AS
-0.3010 BE FREE YES
-0.3010 BE GONE YOURE
-0.3010 BE HE WHO
-0.3010 BE JUST LIKE
-0.3010 BE LAST FOR
-0.3010 BE LATER TO
-0.3010 BE PAST THE
-0.3010 BEDROOM WINDOW IT
-0.3010 BEFORE AND IT
-0.3010 BEFORE HE CAN
-0.3010 BEFORE ITS WASHED
-0.3010 BEFORE SHE SLEEPS
-0.6021 BEFORE THEYRE ALLOWED
-0.6021 BEFORE THEYRE FOREVER
-0.3010 BEFORE YOU CALL
-0.3010 BEHIND PA SHES
-0.3010 BEST TO BE
-0.3010 BETTER BUT I
-0.3010 BETTER START SWIMMIN
-0.3010 BEYOND YOUR COMMAND
-0.3010 BLOCK UP THE
-0.3010 BLOWIN IN THE
-0.3010 BONE IF YOUR
-0.3010 BORED I AINT
-0.3010 BOUND I CANT
-0.3010 BRAINS BEHIND PA
-0.3010 BREAK OF DAWN
-0.3010 BRICKS THE NATIONAL
-0.3010 BROTHER MORE I
-0.3010 BROTHER NO MORE
-0.3010 BUT ALWAYS STRONG
-0.3010 BUT DONT THINK
-0.3010 BUT EVERYBODY WANTS
-0.6021 BUT I DONT
-0.6021 BUT I WISH
-0.3010 BUT IT AINT
-0.6021 BUT SHE SAYS
-0.6021 BUT SHE WANTED
-0.3010 BUT WE NEVER
-0.3010 BY NOW AND
-0.3010 CALL A LOVER
-0.3010 CALL DONT STAND
-0.3010 CALL HIM A
-0.3010 CALLING OUT MY
-0.6021 CAN A MAN
-0.6021 CAN A MOUNTAIN
-0.3010 CAN HEAR PEOPLE
-0.3010 CAN SEE THE
-0.3010 CAN SOME PEOPLE
-0.3010 CANNON BALLS FLY
-0.3010 CANT HEAR YOU
-0.3010 CANT LEND YOUR
-0.3010 CANT TELL GOODBYES
-0.3010 CANT UNDERSTAND YOUR
-0.3010 CAST THE SLOW
-0.3010 CHANCE WONT COME
-0.3010 CHANGE MY MIND
-0.7782 CHANGIN COME MOTHERS
-0.7782 CHANGIN COME SENATORS
-0.7782 CHANGIN COME WRITERS
-0.3010 CHANGIN THE LINE
-0.3010 CHILD I AM
-0.3010 CHOSEN SPEED IM
-0.3010 CIGAR OUT IN
-0.6021 CLOSE HIS EYES
-0.6021 CLOSE HIS HEART
-0.3010 COME AGAIN AND
-0.3010 COME EACH TIME
-0.3010 COME GATHER ROUND
-0.3010 COME MOTHERS AND
-0.3010 COME SENATORS CONGRESSMEN
-0.3010 COME WRITERS AND
-0.3010 COMMAND YOUR OLD
-0.3010 CONGRESSMEN PLEASE HEED
-0.3010 CONSTANTLY AN TO
-0.3010 COULD HAVE DONE
-0.3010 CRITICIZE WHAT YOU
-0.3010 CRITICS WHO PROPHESIZE
-0.3010 CROWS AT THE
-0.3010 CRY YES HOW
-0.3010 CURSE IT IS
-0.3010 DARK SIDE OF
-0.3010 DAUGHTERS ARE BEYOND
-0.3010 DAWN LOOK OUT
-0.3010 DEATHS WILL IT
-0.3010 DEFEND YOU WHETHER
-0.3010 DID TOO MUCH
-0.3010 DIE FOR YOU
-0.3010 DIED THE ANSWER
-0.3010 DIME HE ASKS
-0.3010 DO OR SAY
-0.3010 DO SOMEHOW WHEN
-0.3010 DOESNT SEE THE
-0.3010 DONE BEFORE AND
-0.3010 DONE BETTER BUT
-0.3010 DONT BLOCK UP
-0.3010 DONT CRITICIZE WHAT
-0.3010 DONT KNOW BY
-0.3010 DONT MIND YOU
-0.3010 DONT SPEAK TOO
-0.3010 DONT STAND IN
-0.3010 DONT THINK TWICE
-0.3010 DOOR AH I
-0.3010 DOOR BUT IT
-0.3010 DOOR I AINT
-0.3010 DOORWAY DONT BLOCK
-0.3010 DOVE SAIL BEFORE
-0.3010 DOWN BEFORE YOU
-0.3010 DOWN THE ROAD
-0.3010 DOWN YOU SAY
-0.3010 DRAWN THE CURSE
-0.3010 DRENCHED TO THE
-0.3010 DRIVIN ME INSANE
-0.3010 EACH AND EVERY
-0.3010 EACH TIME YOU
-0.3010 EARS MUST ONE
-0.3010 EIGHT BUT SHE
-0.3010 EVEN YOU DONT
-0.3010 EVERY DOOR BUT
-0.3010 EVERY TIME YOU
-0.3010 EVERYBODY SAYS SHES
-0.3010 EVERYBODY WANTS YOU
-0.3010 EVERYTHING INSIDE IS
-0.6021 EXIST BEFORE ITS
-0.6021 EXIST BEFORE THEYRE
-0.3010 EYES FOR YOU
-0.3010 EYES WIDE THE
-0.3010 FACE JUST FOR
-0.3010 FADIN AND THE
-0.3010 FALL TO GATHER
-0.3010 FARE THEE WELL
-0.3010 FARM NO MORE
-0.3010 FAST AS THE
-0.3010 FATHERS THROUGHOUT THE
-0.3010 FINES YOU EVERY
-0.3010 FIRST ONE NOW
-0.3010 FLOOR I AINT
-0.3010 FLOWERS CONSTANTLY AN
-0.3010 FLY BEFORE THEYRE
-0.3010 FOLD MY HANDS
-0.7782 FOR BABE </s>
-0.4771 FOR BABE GO
-0.3010 FOR HE THAT
-0.3010 FOR KICKS HIS
-0.7782 FOR MAGGIES BROTHER
-0.7782 FOR MAGGIES MA
-0.7782 FOR MAGGIES PA
-0.3010 FOR RAIN I
-0.7782 FOR SOMEONE WHO
-0.7782 FOR SOMEONE WHOLL
-0.7782 FOR SOMEONE WHOS
-1.1461 FOR THE LOSER
-0.4472 FOR THE TIMES
-1.1461 FOR THE WHEELS
-0.7782 FOR YOU AN
-0.7782 FOR YOU LIFE
-0.7782 FOR YOU SOMEONE
-0.3010 FOREVER BANNED THE
-0.3010 FOUR I AINT
-0.3010 FREE YES HOW
-0.3010 FRIEND IS BLOWIN
-0.3010 FROM MY WINDOW
-0.3010 FROM THE LEDGE
-0.3010 FULL OF IDEAS
-0.3010 GAL I CANT
-0.3010 GAL LIKE YOU
-0.3010 GATHER FLOWERS CONSTANTLY
-0.3010 GATHER ROUND PEOPLE
-0.3010 GAVE HER MY
-0.3010 GET BORED I
-0.3010 GET OUT OF
-0.3010 GETS HURT WILL
-0.6021 GO LIGHTLY FROM
-0.6021 GO LIGHTLY ON
-0.3010 GO MELT BACK
-0.3010 GO WAY FROM
-0.3010 GOD AND LAW
-0.3010 GONE YOURE THE
-0.5229 GONNA WORK FOR
-0.6990 GONNA WORK ON
-0.3010 GOOD A WORD
-0.3010 GOOD TIME THEN
-0.3010 GOODBYES TOO GOOD
-0.3010 GOT A HEAD
-0.3010 GRIN IF YOURE
-0.3010 GROUND IM NOT
-0.3010 GROWN AND ACCEPT
-0.3010 GUARD STANDS AROUND
-0.3010 HALL FOR HE
-0.3010 HAND FOR THE
-0.3010 HANDS AND PRAY
-0.3010 HANDS YOU A
-0.3010 HAS STALLED THERES
-0.3010 HAVE BEFORE HE
-0.3010 HAVE DIED THE
-0.3010 HAVE DONE BETTER
-0.3010 HAVE GROWN AND
-0.3010 HAVIN A GOOD
-0.3010 HE ASKS YOU
-0.6021 HE CAN HEAR
-0.6021 HE CAN SEE
-0.3010 HE FINES YOU
-0.3010 HE HANDS YOU
-0.3010 HE JUST DOESNT
-0.3010 HE KNOWS THAT
-0.3010 HE PUTS HIS
-0.3010 HE THAT GETS
-0.3010 HE WHO HAS
-0.3010 HEAD FULL OF
-0.3010 HEAD PRETENDING HE
-0.3010 HEAR PEOPLE CRY
-0.3010 HEAR YOU ANY
-0.3010 HEART BUT SHE
-0.3010 HEART SOMEONE WHO
-0.3010 HEED THE CALL
-0.3010 HER MY HEART
-0.3010 HERE MOVING AN
-0.3010 HIM A MAN
-0.3010 HIS BEDROOM WINDOW
-0.3010 HIS CIGAR OUT
-0.3010 HIS DOOR AH
-0.3010 HIS EYES FOR
-0.3010 HIS HEAD PRETENDING
-0.3010 HIS HEART SOMEONE
-0.3010 HONEY BABY WHERE
-1.2553 HOW MANY DEATHS
-1.2553 HOW MANY EARS
-1.2553 HOW MANY ROADS
-1.2553 HOW MANY SEAS
-0.7782 HOW MANY TIMES
-0.9542 HOW MANY YEARS
-0.3010 HURT WILL BE
-1.5051 I AINT A
-0.3291 I AINT GONNA
-0.6021 I AM BUT
-0.6021 I AM TOLD
-0.6021 I CANT HEAR
-0.6021 I CANT TELL
-0.3010 I DONT MIND
-0.3010 I GAVE HER
-0.3010 I GOT A
-0.3010 I JUST GET
-0.3010 I NEVER KNOWED
-0.3010 I ONCE LOVED
-0.3010 I TRY MY
-0.3010 I WAKE UP
-0.3010 I WILL ONLY
-0.3010 I WISH THERE
-0.3010 IDEAS THAT ARE
-0.3010 IF YOU CANT
-0.3010 IF YOUR TIME
-0.3010 IF YOURE HAVIN
-0.3010 ILL BE GONE
-0.3010 ILL JUST SAY
-0.6021 IM A THINKING
-0.6021 IM A TRAVELING
-0.3010 IM BOUND I
-0.9031 IM NOT ALONE
-0.4260 IM NOT THE
-0.3010 IM ON THE
-0.3010 IN CALLING OUT
-0.3010 IN HERE MOVING
-0.3010 IN SPIN AND
-1.2553 IN THE DOORWAY
-1.2553 IN THE MORNING
-1.2553 IN THE SAND
-0.4771 IN THE WIND
-0.3010 IN TURNING ON
-0.3010 IN YOUR FACE
-0.3010 INSANE ITS A
-0.3010 INSIDE IS MADE
-0.3010 INTO THE NIGHT
-0.3010 IS BLOWIN IN
-0.3010 IS CAST THE
-0.3010 IS DRAWN THE
-0.6021 IS MADE OF
-0.6021 IS MADE OUT
-0.3010 IS RAGIN ITLL
-0.6021 IS RAPIDLY AGIN
-0.6021 IS RAPIDLY FADIN
-0.3010 IS WORTH SAVIN
-0.5229 IT AINT ME
-0.6990 IT AINT NO
-0.9031 IT IS CAST
-0.9031 IT IS DRAWN
-0.9031 IT IS MADE
-0.9031 IT IS RAGIN
-0.3010 IT TAKE TILL
-0.3010 IT THAT SOON
-0.3010 ITLL NEVER DO
-0.3010 ITLL SOON SHAKE
-0.3010 ITS A SHAME
-0.3010 ITS ALL RIGHT
-0.3010 ITS NAMIN FOR
-0.3010 ITS WASHED TO
-0.3010 JUST DOESNT SEE
-0.3010 JUST FOR KICKS
-0.3010 JUST GET BORED
-0.3010 JUST KINDA WASTED
-0.6021 JUST LIKE I
-0.6021 JUST LIKE THEM
-0.3010 JUST SAY FARE
-0.3010 KEEP YOUR EYES
-0.3010 KICKS HIS BEDROOM
-0.3010 KINDA WASTED MY
-0.3010 KNOW BY NOW
-0.3010 KNOWED AND IT
-0.3010 KNOWS THAT TOO
-0.3010 LAND AND DONT
-0.3010 LAST FOR THE
-0.7782 LATER BE FAST
-0.7782 LATER BE LAST
-0.7782 LATER BE PAST
-0.3010 LATER TO WIN
-0.3010 LAW EVERYBODY SAYS
-0.3010 LEAVE AT YOUR
-0.3010 LEDGE BABE GO
-0.3010 LEND YOUR HAND
-0.3010 LET YOUR DOWN
-0.3010 LIFE AN NOTHING
-0.6021 LIGHT BABE IM
-0.6021 LIGHT BABE THE
-0.3010 LIGHT I NEVER
-0.3010 LIGHTLY FROM THE
-0.3010 LIGHTLY ON THE
-0.3010 LIKE A STONE
-0.3010 LIKE I AM
-0.3010 LIKE THEM THEY
-0.3010 LIKE YOU NEVER
-0.3010 LINE IT IS
-0.3010 LONG HONEY BABY
-0.3010 LOOK OUT YOUR
-0.3010 LOOK UP BEFORE
-0.5229 LOOKIN FOR BABE
-0.6990 LOOKIN FOR SOMEONE
-0.3010 LOOKING FOR SOMEONE
-0.3010 LOSER NOW WILL
-0.3010 LOVED A WOMAN
-0.3010 LOVER FOR YOU
-0.3010 MA NO MORE
-0.3010 MADE OF STONE
-0.3010 MADE OUT OF
-0.7782 MAGGIES BROTHER MORE
-0.4771 MAGGIES BROTHER NO
-0.3010 MAGGIES FARM NO
-0.3010 MAGGIES MA NO
-0.3010 MAGGIES PA NO
-0.3010 MAKE ME CHANGE
-0.3010 MAKES ME SCRUB
-0.3010 MAN AND GOD
-0.3010 MAN HAVE BEFORE
-0.3010 MAN HOW MANY
-0.3010 MAN LOOK UP
-0.3010 MAN TURN HIS
-0.3010 MAN WALK DOWN
-0.3010 MANY DEATHS WILL
-0.3010 MANY EARS MUST
-0.3010 MANY PEOPLE HAVE
-0.3010 MANY ROADS MUST
-0.3010 MANY SEAS MUST
-0.7782 MANY TIMES CAN
-0.4771 MANY TIMES MUST
-0.3010 MANY YEARS CAN
-0.6990 ME BABE IT
-0.5229 ME BABE NO
-0.3010 ME BABEV IT
-0.3010 ME CHANGE MY
-0.3010 ME INSANE ITS
-0.3010 ME SCRUB THE
-0.3010 ME UNKIND YOU
-0.3010 ME YOURE LOOKIN
-0.3010 MELT BACK INTO
-0.3010 MIND AND STAY
-0.3010 MIND YOU JUST
-0.3010 MORE BUT IT
-0.3010 MORE I AINT
-0.3010 MORE IM A
-0.3010 MORE NO I
-0.6990 MORE WELL HE
-0.6990 MORE WELL I
-1.0000 MORE WELL WHEN
-0.3010 MORNING FOLD MY
-0.3010 MOTHERS AND FATHERS
-0.3010 MOUNTAIN EXIST BEFORE
-0.3010 MOVING AN ANYWAY
-0.3010 MUCH TALKING ANYWAY
-0.4771 MUST A MAN
-0.7782 MUST A WHITE
-0.3010 MUST ONE MAN
-0.3010 MUST THE CANNON
-0.3010 MY BEST TO
-0.3010 MY FRIEND IS
-0.3010 MY HANDS AND
-0.3010 MY HEART BUT
-0.3010 MY MIND AND
-0.3010 MY NAME GAL
-0.3010 MY PRECIOUS TIME
-0.3010 MY SOUL BUT
-0.3010 MY WINDOW LEAVE
-0.6021 NAME GAL I
-0.6021 NAME GAL LIKE
-0.3010 NAMIN FOR THE
-0.3010 NATIONAL GUARD STANDS
-0.3010 NEED YOU SAY
-0.3010 NEVER DID TOO
-0.3010 NEVER DO SOMEHOW
-0.3010 NEVER DONE BEFORE
-0.3010 NEVER KNOWED AND
-0.3010 NEVER TO PART
-0.3010 NEVER WEAK BUT
-0.3010 NEW ONE IF
-0.3010 NICKEL HE HANDS
-0.3010 NIGHT EVERYTHING INSIDE
-0.3010 NO I AINT
-0.3010 NO IT AINT
-1.4472 NO MORE </s>
-0.8451 NO MORE I
-0.8451 NO MORE NO
-0.7482 NO MORE WELL
-0.6021 NO NO IT
-0.6021 NO NO NO
-0.3010 NO TELLIN WHO
-0.4771 NO USE IN
-0.7782 NO USE TO
-0.3010 NOT ALONE YOU
-0.3010 NOT THE ONE
-0.3010 NOTHING IN HERE
-0.3010 NOTHING MORE BUT
-0.3010 NOW AND IT
-0.9031 NOW WILL BE
-0.4260 NOW WILL LATER
-0.3010 OF BRICKS THE
-0.3010 OF DAWN LOOK
-0.3010 OF IDEAS THAT
-0.3010 OF STONE THERES
-0.6021 OF THE NEW
-0.6021 OF THE ROAD
-0.3010 OLD ROAD IS
-0.3010 ON BUT DONT
-0.3010 ON MAGGIES FARM
-0.6021 ON THE DARK
-0.6021 ON THE GROUND
-0.3010 ON YOUR LIGHT
-0.3010 ONCE LOVED A
-0.3010 ONE IF YOU
-0.3010 ONE MAN HAVE
-0.3010 ONE NOW WILL
-0.7782 ONE YOU NEED
-0.4771 ONE YOU WANT
-0.3010 ONLY LET YOUR
-0.3010 OPEN EACH AND
-0.3010 OR SAY TO
-0.3010 OR WRONG SOMEONE
-0.3010 OR YOULL SINK
-0.3010 ORDER IS RAPIDLY
-0.3010 OUT IN YOUR
-0.3010 OUT MY NAME
-0.6021 OUT OF BRICKS
-0.6021 OUT OF THE
-0.3010 OUT YOUR WINDOW
-0.3010 OUTSIDE AND IT
-0.3010 OWN CHOSEN SPEED
-0.3010 PA NO MORE
-0.3010 PA SHES SIXTY
-0.3010 PART SOMEONE TO
-0.3010 PAST THE ORDER
-0.3010 PEN AND KEEP
-0.3010 PEOPLE CRY YES
-0.3010 PEOPLE EXIST BEFORE
-0.3010 PEOPLE HAVE DIED
-0.3010 PEOPLE WHEREVER YOU
-0.3010 PICK YOU UP
-0.3010 PLEASE GET OUT
-0.3010 PLEASE HEED THE
-0.3010 PRAY FOR RAIN
-0.3010 PRECIOUS TIME BUT
-0.3010 PRESENT NOW WILL
-0.3010 PRETENDING HE JUST
-0.3010 PROMISE NEVER TO
-0.3010 PROPHESIZE WITH YOUR
-0.3010 PROTECT YOU AN
-0.3010 PUTS HIS CIGAR
-0.3010 RAGIN ITLL SOON
-0.3010 RAIN I GOT
-0.3010 RAPIDLY AGIN PLEASE
-0.3010 RAPIDLY FADIN AND
-0.3010 RATTLE YOUR WALLS
-0.3010 REASON IM A
-0.3010 RIGHT AND IT
-0.3010 RIGHT OR WRONG
-0.6021 RIGHT SO IT
-0.6021 RIGHT SO LONG
-0.3010 ROAD BUT I
-0.3010 ROAD I ONCE
-0.3010 ROAD IS RAPIDLY
-0.3010 ROADS MUST A
-0.3010 ROAM AND ADMIT
-0.3010 ROOSTER CROWS AT
-0.3010 ROUND PEOPLE WHEREVER
-0.3010 SAIL BEFORE SHE
-0.3010 SAND YES HOW
-0.3010 SAVIN THEN YOU
-0.3010 SAY FARE THEE
-0.3010 SAY SING WHILE
-0.3010 SAY TO TRY
-0.4771 SAY YOURE LOOKIN
-0.7782 SAY YOURE LOOKING
-0.3010 SAYING YOU TREATED
-0.6021 SAYS SHES THE
-0.6021 SAYS SHES TWENTY
-0.3010 SCRUB THE FLOOR
-0.3010 SEA YES HOW
-0.3010 SEAS MUST A
-0.6021 SEE THE ANSWER
-0.6021 SEE THE SKY
-0.3010 SENATORS CONGRESSMEN PLEASE
-0.3010 SERVANTS ABOUT MAN
-0.3010 SHAKE YOUR WINDOWS
-0.3010 SHAME THE WAY
-0.3010 SHE MAKES ME
-0.3010 SHE SAYS SHES
-0.3010 SHE SLEEPS IN
-0.3010 SHE TALKS TO
-0.3010 SHE WANTED MY
-0.3010 SHES SIXTY EIGHT
-0.3010 SHES THE BRAINS
-0.3010 SHES TWENTY FOUR
-0.3010 SIDE OF THE
-0.3010 SING WHILE YOU
-0.3010 SINK LIKE A
-0.3010 SIT AND WONDER
-0.3010 SIXTY EIGHT BUT
-0.3010 SKY YES HOW
-0.3010 SLAM THE DOOR
-0.3010 SLAVE AND I
-0.3010 SLEEPS IN THE
-0.3010 SLOW ONE NOW
-0.3010 SO ILL JUST
-0.3010 SO IT AINT
-0.3010 SO LONG HONEY
-0.3010 SOME PEOPLE EXIST
-0.3010 SOMEHOW WHEN YOUR
-0.4771 SOMEONE TO CLOSE
-0.7782 SOMEONE TO OPEN
-0.3010 SOMEONE WHO WILL
-0.3010 SOMEONE WHOLL PICK
-0.3010 SOMEONE WHOS NEVER
-0.3010 SOMETHIN YOU WOULD
-0.3010 SONS AND YOUR
-0.3010 SOON FOR THE
-0.3010 SOON SHAKE YOUR
-0.3010 SOON YOULL BE
-0.3010 SOUL BUT DONT
-0.3010 SPEAK TOO SOON
-0.3010 SPEED IM NOT
-0.3010 SPIN AND THERES
-0.3010 STALLED THERES A
-0.3010 STAND IN THE
-0.3010 STANDS AROUND HIS
-0.3010 START SWIMMIN OR
-0.3010 STAY BUT WE
-0.3010 STILL IN SPIN
-0.3010 STONE FOR THE
-0.3010 STONE THERES NOTHING
-0.3010 STRONG TO PROTECT
-0.3010 SWIMMIN OR YOULL
-0.3010 TAKE TILL HE
-0.3010 TALKING ANYWAY BUT
-0.3010 TALKS TO ALL
-0.3010 TELL GOODBYES TOO
-0.3010 TELLIN WHO THAT
-0.3010 THAT ARE DRIVIN
-0.3010 THAT GETS HURT
-0.3010 THAT ITS NAMIN
-0.3010 THAT SOON YOULL
-0.3010 THAT THE WATERS
-0.3010 THAT TOO MANY
-0.6021 THE ANSWER IS
-0.6021 THE ANSWER MY
-0.3010 THE BONE IF
-0.3010 THE BRAINS BEHIND
-0.3010 THE BREAK OF
-0.3010 THE CALL DONT
-0.3010 THE CANNON BALLS
-0.3010 THE CHANCE WONT
-0.3010 THE CURSE IT
-0.3010 THE DARK SIDE
-0.3010 THE DOOR I
-0.3010 THE DOORWAY DONT
-0.3010 THE FIRST ONE
-0.3010 THE FLOOR I
-0.3010 THE GROUND IM
-0.3010 THE HALL FOR
-0.3010 THE LAND AND
-0.3010 THE LEDGE BABE
-0.3010 THE LIGHT I
-0.3010 THE LINE IT
-0.3010 THE LOSER NOW
-0.3010 THE MORNING FOLD
-0.3010 THE NATIONAL GUARD
-0.3010 THE NEW ONE
-0.3010 THE NIGHT EVERYTHING
-0.3010 THE ONE YOU
-0.3010 THE ORDER IS
-0.3010 THE PRESENT NOW
-0.3010 THE REASON IM
-0.6021 THE ROAD BUT
-0.6021 THE ROAD I
-0.3010 THE SAND YES
-0.3010 THE SEA YES
-0.3010 THE SERVANTS ABOUT
-0.3010 THE SKY YES
-0.3010 THE SLOW ONE
-0.3010 THE TIMES THEY
-0.3010 THE WATERS AROUND
-0.3010 THE WAY SHE
-0.3010 THE WHEELS STILL
-1.0792 THE WIND </s>
-0.6021 THE WIND THE
-0.7782 THE WIND YES
-0.3010 THEE WELL I
-0.3010 THEM THEY SAY
-0.3010 THEN HE FINES
-0.3010 THEN YOU BETTER
-0.3010 THERE WAS SOMETHIN
-0.3010 THERES A BATTLE
-0.3010 THERES NO TELLIN
-0.3010 THERES NOTHING IN
-0.3010 THEY ARE A
-0.3010 THEY SAY SING
-0.3010 THEYRE ALLOWED TO
-0.3010 THEYRE FOREVER BANNED
-0.3010 THINK TWICE ITS
-0.3010 THINKING AND A
-0.3010 THROUGHOUT THE LAND
-0.3010 TILL HE KNOWS
-0.3010 TIME BUT DONT
-0.3010 TIME THEN HE
-0.3010 TIME TO YOU
-0.7782 TIME YOU CALL
-0.7782 TIME YOU FALL
-0.7782 TIME YOU SLAM
-0.3010 TIMES CAN A
-0.6021 TIMES MUST A
-0.6021 TIMES MUST THE
-0.3010 TIMES THEY ARE
-0.3010 TO ALL THE
-0.7782 TO BE FREE
-0.4771 TO BE JUST
-0.3010 TO CLOSE HIS
-0.3010 TO COME EACH
-0.3010 TO GATHER FLOWERS
-0.3010 TO OPEN EACH
-0.3010 TO PART SOMEONE
-0.3010 TO PROTECT YOU
-0.3010 TO SIT AND
-0.6021 TO THE BONE
-0.6021 TO THE SEA
-0.3010 TO TRY AND
-0.3010 TO WIN FOR
-0.3010 TO YOU IS
-0.3010 TOLD I GAVE
-0.3010 TOO GOOD A
-0.3010 TOO MANY PEOPLE
-0.3010 TOO MUCH TALKING
-0.3010 TOO SOON FOR
-0.3010 TRAVELING ON BUT
-0.3010 TREATED ME UNKIND
-0.3010 TRY AND MAKE
-0.3010 TRY MY BEST
-0.3010 TURN HIS HEAD
-0.3010 TURNING ON YOUR
-0.3010 TWENTY FOUR I
-0.3010 TWICE ITS ALL
-0.3010 UNDERSTAND YOUR SONS
-0.3010 UNKIND YOU COULD
-0.3010 UP BEFORE HE
-0.3010 UP EACH TIME
-0.3010 UP IN THE
-0.3010 UP THE HALL
-0.6021 USE IN CALLING
-0.6021 USE IN TURNING
-0.3010 USE TO SIT
-0.3010 WAKE UP IN
-0.3010 WALK DOWN BEFORE
-0.3010 WALKING DOWN THE
-0.3010 WALLS FOR THE
-0.6021 WANT BABE I
-0.6021 WANT BABE IM
-0.3010 WANTED MY SOUL
-0.3010 WANTS YOU TO
-0.3010 WAS SOMETHIN YOU
-0.3010 WASHED TO THE
-0.3010 WASTED MY PRECIOUS
-0.3010 WATERS AROUND YOU
-0.3010 WAY FROM MY
-0.3010 WAY SHE MAKES
-0.3010 WE NEVER DID
-0.3010 WEAK BUT ALWAYS
-0.6021 WELL HE HANDS
-0.6021 WELL HE PUTS
-0.7782 WELL I AINT
-0.7782 WELL I TRY
-0.7782 WELL I WAKE
-0.3010 WELL IT AINT
-0.3010 WELL WHEN SHE
-0.3010 WHAT YOU CANT
-0.3010 WHEELS STILL IN
-0.3010 WHEN SHE TALKS
-0.3010 WHEN YOUR ROOSTER
-0.3010 WHERE IM BOUND
-0.3010 WHEREVER YOU ROAM
-0.3010 WHETHER YOU ARE
-0.3010 WHILE YOU SLAVE
-0.3010 WHITE DOVE SAIL
-0.3010 WHO HAS STALLED
-0.3010 WHO PROPHESIZE WITH
-0.3010 WHO THAT ITS
-0.6021 WHO WILL DIE
-0.6021 WHO WILL PROMISE
-0.3010 WHOLL PICK YOU
-0.3010 WHOS NEVER WEAK
-0.6021 WHY BABE EVEN
-0.6021 WHY BABE ITLL
-0.3010 WIDE THE CHANCE
-0.6021 WILL BE HE
-0.6021 WILL BE LATER
-0.3010 WILL DIE FOR
-0.3010 WILL IT TAKE
-0.3010 WILL LATER BE
-0.3010 WILL ONLY LET
-0.3010 WILL PROMISE NEVER
-0.3010 WIN FOR THE
-0.3010 WIND THE ANSWER
-0.3010 WIND YES HOW
-0.3010 WINDOW AND ILL
-0.3010 WINDOW IT IS
-0.3010 WINDOW LEAVE AT
-0.3010 WINDOWS AND RATTLE
-0.3010 WISH THERE WAS
-0.3010 WITH A GRIN
-0.3010 WITH YOUR PEN
-0.3010 WOMAN A CHILD
-0.3010 WONDER WHY BABE
-0.3010 WONDERIN WALKING DOWN
-0.3010 WONT COME AGAIN
-0.3010 WORD BABE SO
-0.3010 WORK FOR MAGGIES
-0.3010 WORK ON MAGGIES
-0.3010 WORTH SAVIN THEN
-0.3010 WOULD DO OR
-0.3010 WRITERS AND CRITICS
-0.3010 WRONG SOMEONE TO
-0.6021 YEARS CAN A
-0.6021 YEARS CAN SOME
-0.3010 YES HOW MANY
-0.6021 YOU A DIME
-0.6021 YOU A NICKEL
-0.6021 YOU AN DEFEND
-0.6021 YOU AN MORE
-0.3010 YOU ANY MORE
-0.3010 YOU ARE RIGHT
-0.3010 YOU BETTER START
-0.6021 YOU CALL A
-0.6021 YOU CALL HIM
-0.6021 YOU CANT LEND
-0.6021 YOU CANT UNDERSTAND
-0.3010 YOU COULD HAVE
-0.3010 YOU DONT KNOW
-0.3010 YOU EVERY TIME
-0.3010 YOU FALL TO
-0.3010 YOU HAVE GROWN
-0.3010 YOU IS WORTH
-0.3010 YOU JUST KINDA
-0.3010 YOU LIFE AN
-0.3010 YOU NEED YOU
-0.3010 YOU NEVER DONE
-0.3010 YOU ROAM AND
-0.3010 YOU SAY YOURE
-0.3010 YOU SLAM THE
-0.3010 YOU SLAVE AND
-0.3010 YOU SOMEONE TO
-0.3010 YOU TO BE
-0.3010 YOU TREATED ME
-0.3010 YOU UP EACH
-0.3010 YOU WANT BABE
-0.3010 YOU WHETHER YOU
-0.3010 YOU WITH A
-0.3010 YOU WOULD DO
-0.3010 YOULL BE DRENCHED
-0.3010 YOULL SINK LIKE
-0.3010 YOUR COMMAND YOUR
-0.3010 YOUR DAUGHTERS ARE
-0.3010 YOUR DOWN YOU
-0.3010 YOUR EYES WIDE
-0.3010 YOUR FACE JUST
-0.3010 YOUR HAND FOR
-0.3010 YOUR LIGHT BABE
-0.3010 YOUR OLD ROAD
-0.3010 YOUR OWN CHOSEN
-0.3010 YOUR PEN AND
-0.3010 YOUR ROOSTER CROWS
-0.3010 YOUR SONS AND
-0.3010 YOUR TIME TO
-0.3010 YOUR WALLS FOR
-0.3010 YOUR WINDOW AND
-0.3010 YOUR WINDOWS AND
-0.3010 YOURE HAVIN A
-0.3010 YOURE LOOKIN FOR
-0.3010 YOURE LOOKING FOR
-0.3010 YOURE THE REASON

\end\
